digraph Tree {
node [shape=box, style="filled, rounded", color="black", fontname="helvetica"] ;
edge [fontname="helvetica"] ;
0 [label="petal width (cm) <= 0.8\ngini = 0.66\nsamples = 73\nvalue = [47, 38, 35]\nclass = setosa", fillcolor="#fcf1e9"] ;
1 [label="gini = 0.0\nsamples = 25\nvalue = [47, 0, 0]\nclass = setosa", fillcolor="#e58139"] ;
0 -> 1 [labeldistance=2.5, labelangle=45, headlabel="True"] ;
2 [label="petal width (cm) <= 1.75\ngini = 0.5\nsamples = 48\nvalue = [0, 38, 35]\nclass = versicolor", fillcolor="#effdf5"] ;
0 -> 2 [labeldistance=2.5, labelangle=-45, headlabel="False"] ;
3 [label="petal length (cm) <= 5.45\ngini = 0.1\nsamples = 26\nvalue = [0, 37, 2]\nclass = versicolor", fillcolor="#44e688"] ;
2 -> 3 ;
4 [label="sepal length (cm) <= 4.95\ngini = 0.05\nsamples = 25\nvalue = [0, 37, 1]\nclass = versicolor", fillcolor="#3ee684"] ;
3 -> 4 ;
5 [label="gini = 0.0\nsamples = 1\nvalue = [0, 0, 1]\nclass = virginica", fillcolor="#8139e5"] ;
4 -> 5 ;
6 [label="gini = 0.0\nsamples = 24\nvalue = [0, 37, 0]\nclass = versicolor", fillcolor="#39e581"] ;
4 -> 6 ;
7 [label="gini = 0.0\nsamples = 1\nvalue = [0, 0, 1]\nclass = virginica", fillcolor="#8139e5"] ;
3 -> 7 ;
8 [label="petal length (cm) <= 4.85\ngini = 0.06\nsamples = 22\nvalue = [0, 1, 33]\nclass = virginica", fillcolor="#853fe6"] ;
2 -> 8 ;
9 [label="sepal length (cm) <= 5.95\ngini = 0.38\nsamples = 2\nvalue = [0, 1, 3]\nclass = virginica", fillcolor="#ab7bee"] ;
8 -> 9 ;
10 [label="gini = 0.0\nsamples = 1\nvalue = [0, 1, 0]\nclass = versicolor", fillcolor="#39e581"] ;
9 -> 10 ;
11 [label="gini = 0.0\nsamples = 1\nvalue = [0, 0, 3]\nclass = virginica", fillcolor="#8139e5"] ;
9 -> 11 ;
12 [label="gini = 0.0\nsamples = 20\nvalue = [0, 0, 30]\nclass = virginica", fillcolor="#8139e5"] ;
8 -> 12 ;
}